<?xml version="1.0"?>
<opencv_storage>
<stage3>
  <maxWeakCount>6</maxWeakCount>
  <stageThreshold>-8.0860078334808350e-01</stageThreshold>
  <weakClassifiers>
    <_>
      <internalNodes>
        0 -1 245278 2.3865000903606415e-01</internalNodes>
      <leafValues>
        -8.0874317884445190e-01 6.8202763795852661e-01</leafValues></_>
    <_>
      <internalNodes>
        0 -1 126158 -2.0360313355922699e-02</internalNodes>
      <leafValues>
        8.3312320709228516e-01 -5.3241026401519775e-01</leafValues></_>
    <_>
      <internalNodes>
        0 -1 41 8.2146096974611282e-04</internalNodes>
      <leafValues>
        4.0560850501060486e-01 -9.2138642072677612e-01</leafValues></_>
    <_>
      <internalNodes>
        0 -1 41 -6.4495671540498734e-04</internalNodes>
      <leafValues>
        -8.2069832086563110e-01 4.5029312372207642e-01</leafValues></_>
    <_>
      <internalNodes>
        0 -1 79530 -1.0477843694388866e-02</internalNodes>
      <leafValues>
        5.5125373601913452e-01 -6.3797587156295776e-01</leafValues></_>
    <_>
      <internalNodes>
        0 -1 293602 4.7259592975024134e-05</internalNodes>
      <leafValues>
        3.1462693214416504e-01 -9.2400127649307251e-01</leafValues></_></weakClassifiers></stage3>
</opencv_storage>
