<?xml version="1.0"?>
<opencv_storage>
<stage4>
  <maxWeakCount>5</maxWeakCount>
  <stageThreshold>-1.4159220457077026e-01</stageThreshold>
  <weakClassifiers>
    <_>
      <internalNodes>
        0 -1 146458 7.7193146571516991e-03</internalNodes>
      <leafValues>
        -6.1883407831192017e-01 7.7966099977493286e-01</leafValues></_>
    <_>
      <internalNodes>
        0 -1 235178 1.8612490966916084e-03</internalNodes>
      <leafValues>
        -7.9814928770065308e-01 5.3834199905395508e-01</leafValues></_>
    <_>
      <internalNodes>
        0 -1 270325 1.4068484306335449e-02</internalNodes>
      <leafValues>
        -5.8188736438751221e-01 6.0714673995971680e-01</leafValues></_>
    <_>
      <internalNodes>
        0 -1 1009 -3.3618457615375519e-02</internalNodes>
      <leafValues>
        3.7009581923484802e-01 -9.3358224630355835e-01</leafValues></_>
    <_>
      <internalNodes>
        0 -1 80231 5.7675972580909729e-02</internalNodes>
      <leafValues>
        -9.1632407903671265e-01 2.9814860224723816e-01</leafValues></_></weakClassifiers></stage4>
</opencv_storage>
