<?xml version="1.0"?>
<opencv_storage>
<cascade>
  <stageType>BOOST</stageType>
  <featureType>HAAR</featureType>
  <height>28</height>
  <width>28</width>
  <stageParams>
    <boostType>GAB</boostType>
    <minHitRate>9.9500000476837158e-01</minHitRate>
    <maxFalseAlarm>5.0000000000000000e-01</maxFalseAlarm>
    <weightTrimRate>9.4999999999999996e-01</weightTrimRate>
    <maxDepth>1</maxDepth>
    <maxWeakCount>100</maxWeakCount></stageParams>
  <featureParams>
    <maxCatCount>0</maxCatCount>
    <featSize>1</featSize>
    <mode>BASIC</mode></featureParams>
  <stageNum>20</stageNum>
  <stages>
    <!-- stage 0 -->
    <_>
      <maxWeakCount>2</maxWeakCount>
      <stageThreshold>-3.5542801022529602e-02</stageThreshold>
      <weakClassifiers>
        <_>
          <internalNodes>
            0 -1 3 -1.1096097528934479e-01</internalNodes>
          <leafValues>
            9.8000001907348633e-01 -9.5999997854232788e-01</leafValues></_>
        <_>
          <internalNodes>
            0 -1 35 4.7942951321601868e-02</internalNodes>
          <leafValues>
            -9.2728382349014282e-01 9.2445719242095947e-01</leafValues></_></weakClassifiers></_>
    <!-- stage 1 -->
    <_>
      <maxWeakCount>3</maxWeakCount>
      <stageThreshold>-8.4685641527175903e-01</stageThreshold>
      <weakClassifiers>
        <_>
          <internalNodes>
            0 -1 23 -5.2862567827105522e-03</internalNodes>
          <leafValues>
            9.5918369293212891e-01 -8.4615385532379150e-01</leafValues></_>
        <_>
          <internalNodes>
            0 -1 28 1.0211449861526489e-01</internalNodes>
          <leafValues>
            -7.4760574102401733e-01 9.2259800434112549e-01</leafValues></_>
        <_>
          <internalNodes>
            0 -1 20 7.6381661929190159e-03</internalNodes>
          <leafValues>
            -9.2821544408798218e-01 7.4690318107604980e-01</leafValues></_></weakClassifiers></_>
    <!-- stage 2 -->
    <_>
      <maxWeakCount>3</maxWeakCount>
      <stageThreshold>-7.1309179067611694e-01</stageThreshold>
      <weakClassifiers>
        <_>
          <internalNodes>
            0 -1 37 9.3848472461104393e-03</internalNodes>
          <leafValues>
            -8.0769228935241699e-01 9.3877553939819336e-01</leafValues></_>
        <_>
          <internalNodes>
            0 -1 33 4.4089416041970253e-03</internalNodes>
          <leafValues>
            -6.3682878017425537e-01 9.5862495899200439e-01</leafValues></_>
        <_>
          <internalNodes>
            0 -1 13 -3.1938329339027405e-02</internalNodes>
          <leafValues>
            7.3142933845520020e-01 -9.3184435367584229e-01</leafValues></_></weakClassifiers></_>
    <!-- stage 3 -->
    <_>
      <maxWeakCount>2</maxWeakCount>
      <stageThreshold>1.2565411627292633e-02</stageThreshold>
      <weakClassifiers>
        <_>
          <internalNodes>
            0 -1 21 -6.3116848468780518e-03</internalNodes>
          <leafValues>
            8.8235294818878174e-01 -8.3333331346511841e-01</leafValues></_>
        <_>
          <internalNodes>
            0 -1 45 4.1405419324291870e-05</internalNodes>
          <leafValues>
            8.4592306613922119e-01 -8.6978751420974731e-01</leafValues></_></weakClassifiers></_>
    <!-- stage 4 -->
    <_>
      <maxWeakCount>3</maxWeakCount>
      <stageThreshold>-8.9188849925994873e-01</stageThreshold>
      <weakClassifiers>
        <_>
          <internalNodes>
            0 -1 27 -3.3308574929833412e-03</internalNodes>
          <leafValues>
            8.1132078170776367e-01 -8.1818181276321411e-01</leafValues></_>
        <_>
          <internalNodes>
            0 -1 6 -4.6918824315071106e-02</internalNodes>
          <leafValues>
            8.5716229677200317e-01 -7.2576171159744263e-01</leafValues></_>
        <_>
          <internalNodes>
            0 -1 2 3.1182258389890194e-03</internalNodes>
          <leafValues>
            6.5205502510070801e-01 -1.</leafValues></_></weakClassifiers></_>
    <!-- stage 5 -->
    <_>
      <maxWeakCount>2</maxWeakCount>
      <stageThreshold>-4.2735684663057327e-02</stageThreshold>
      <weakClassifiers>
        <_>
          <internalNodes>
            0 -1 12 -4.6832085354253650e-04</internalNodes>
          <leafValues>
            -9.5555555820465088e-01 8.8571429252624512e-01</leafValues></_>
        <_>
          <internalNodes>
            0 -1 29 -1.8175849691033363e-03</internalNodes>
          <leafValues>
            9.1281986236572266e-01 -9.1961908340454102e-01</leafValues></_></weakClassifiers></_>
    <!-- stage 6 -->
    <_>
      <maxWeakCount>2</maxWeakCount>
      <stageThreshold>-2.2882662713527679e-01</stageThreshold>
      <weakClassifiers>
        <_>
          <internalNodes>
            0 -1 26 2.0540317893028259e-01</internalNodes>
          <leafValues>
            -9.5238095521926880e-01 8.3333331346511841e-01</leafValues></_>
        <_>
          <internalNodes>
            0 -1 51 -2.1377553639467806e-04</internalNodes>
          <leafValues>
            -1. 7.2355431318283081e-01</leafValues></_></weakClassifiers></_>
    <!-- stage 7 -->
    <_>
      <maxWeakCount>3</maxWeakCount>
      <stageThreshold>-6.4637506008148193e-01</stageThreshold>
      <weakClassifiers>
        <_>
          <internalNodes>
            0 -1 5 -3.2807216048240662e-02</internalNodes>
          <leafValues>
            8.8349515199661255e-01 -8.7234044075012207e-01</leafValues></_>
        <_>
          <internalNodes>
            0 -1 18 2.0705664064735174e-03</internalNodes>
          <leafValues>
            -6.5814185142517090e-01 9.4028848409652710e-01</leafValues></_>
        <_>
          <internalNodes>
            0 -1 16 -9.5893647521734238e-03</internalNodes>
          <leafValues>
            8.8410723209381104e-01 -5.9324067831039429e-01</leafValues></_></weakClassifiers></_>
    <!-- stage 8 -->
    <_>
      <maxWeakCount>2</maxWeakCount>
      <stageThreshold>1.5411301515996456e-02</stageThreshold>
      <weakClassifiers>
        <_>
          <internalNodes>
            0 -1 15 -2.5628558360040188e-03</internalNodes>
          <leafValues>
            9.7872340679168701e-01 -7.5000000000000000e-01</leafValues></_>
        <_>
          <internalNodes>
            0 -1 43 2.9398099286481738e-04</internalNodes>
          <leafValues>
            -1. 7.6541131734848022e-01</leafValues></_></weakClassifiers></_>
    <!-- stage 9 -->
    <_>
      <maxWeakCount>2</maxWeakCount>
      <stageThreshold>-9.5909625291824341e-02</stageThreshold>
      <weakClassifiers>
        <_>
          <internalNodes>
            0 -1 0 -5.7669664965942502e-04</internalNodes>
          <leafValues>
            -9.0243899822235107e-01 7.9816514253616333e-01</leafValues></_>
        <_>
          <internalNodes>
            0 -1 14 -1.9280336797237396e-02</internalNodes>
          <leafValues>
            8.0652940273284912e-01 -8.1526428461074829e-01</leafValues></_></weakClassifiers></_>
    <!-- stage 10 -->
    <_>
      <maxWeakCount>2</maxWeakCount>
      <stageThreshold>-1.9084937870502472e-02</stageThreshold>
      <weakClassifiers>
        <_>
          <internalNodes>
            0 -1 48 6.9102185079827905e-05</internalNodes>
          <leafValues>
            7.5000000000000000e-01 -8.9473682641983032e-01</leafValues></_>
        <_>
          <internalNodes>
            0 -1 19 -7.6926155015826225e-03</internalNodes>
          <leafValues>
            8.7565189599990845e-01 -6.7568361759185791e-01</leafValues></_></weakClassifiers></_>
    <!-- stage 11 -->
    <_>
      <maxWeakCount>1</maxWeakCount>
      <stageThreshold>7.3913043737411499e-01</stageThreshold>
      <weakClassifiers>
        <_>
          <internalNodes>
            0 -1 47 -4.0488477679900825e-05</internalNodes>
          <leafValues>
            -1. 7.3913043737411499e-01</leafValues></_></weakClassifiers></_>
    <!-- stage 12 -->
    <_>
      <maxWeakCount>2</maxWeakCount>
      <stageThreshold>-1.4180128462612629e-02</stageThreshold>
      <weakClassifiers>
        <_>
          <internalNodes>
            0 -1 9 -9.7308561205863953e-02</internalNodes>
          <leafValues>
            8.4615385532379150e-01 -8.2608693838119507e-01</leafValues></_>
        <_>
          <internalNodes>
            0 -1 25 -6.7382156848907471e-02</internalNodes>
          <leafValues>
            -8.5140001773834229e-01 8.1190681457519531e-01</leafValues></_></weakClassifiers></_>
    <!-- stage 13 -->
    <_>
      <maxWeakCount>4</maxWeakCount>
      <stageThreshold>-3.1162866950035095e-01</stageThreshold>
      <weakClassifiers>
        <_>
          <internalNodes>
            0 -1 31 8.8403105735778809e-02</internalNodes>
          <leafValues>
            -9.4871795177459717e-01 7.8378379344940186e-01</leafValues></_>
        <_>
          <internalNodes>
            0 -1 46 -2.3739259631838650e-05</internalNodes>
          <leafValues>
            -1. 6.0567939281463623e-01</leafValues></_>
        <_>
          <internalNodes>
            0 -1 24 -2.6989793404936790e-03</internalNodes>
          <leafValues>
            9.2835235595703125e-01 -7.3461842536926270e-01</leafValues></_>
        <_>
          <internalNodes>
            0 -1 44 3.0286997571238317e-05</internalNodes>
          <leafValues>
            7.6602834463119507e-01 -8.0970591306686401e-01</leafValues></_></weakClassifiers></_>
    <!-- stage 14 -->
    <_>
      <maxWeakCount>4</maxWeakCount>
      <stageThreshold>-1.0859996080398560e+00</stageThreshold>
      <weakClassifiers>
        <_>
          <internalNodes>
            0 -1 36 1.9083589315414429e-02</internalNodes>
          <leafValues>
            -6.8000000715255737e-01 8.3999997377395630e-01</leafValues></_>
        <_>
          <internalNodes>
            0 -1 40 -1.6052171587944031e-02</internalNodes>
          <leafValues>
            8.6949169635772705e-01 -5.0895053148269653e-01</leafValues></_>
        <_>
          <internalNodes>
            0 -1 22 4.0444708429276943e-03</internalNodes>
          <leafValues>
            -4.7479414939880371e-01 9.1700476408004761e-01</leafValues></_>
        <_>
          <internalNodes>
            0 -1 49 8.3740029367618263e-05</internalNodes>
          <leafValues>
            5.7774507999420166e-01 -9.0735197067260742e-01</leafValues></_></weakClassifiers></_>
    <!-- stage 15 -->
    <_>
      <maxWeakCount>2</maxWeakCount>
      <stageThreshold>1.5756244957447052e-01</stageThreshold>
      <weakClassifiers>
        <_>
          <internalNodes>
            0 -1 30 1.2833546847105026e-02</internalNodes>
          <leafValues>
            -4.6875000000000000e-01 9.3023258447647095e-01</leafValues></_>
        <_>
          <internalNodes>
            0 -1 17 6.7514448892325163e-04</internalNodes>
          <leafValues>
            -7.7267009019851685e-01 7.9884630441665649e-01</leafValues></_></weakClassifiers></_>
    <!-- stage 16 -->
    <_>
      <maxWeakCount>3</maxWeakCount>
      <stageThreshold>-4.3593484163284302e-01</stageThreshold>
      <weakClassifiers>
        <_>
          <internalNodes>
            0 -1 47 2.9317998269107193e-05</internalNodes>
          <leafValues>
            8.0769228935241699e-01 -7.3913043737411499e-01</leafValues></_>
        <_>
          <internalNodes>
            0 -1 42 -2.3188530467450619e-03</internalNodes>
          <leafValues>
            9.3554574251174927e-01 -5.5550235509872437e-01</leafValues></_>
        <_>
          <internalNodes>
            0 -1 7 -1.7132792621850967e-02</internalNodes>
          <leafValues>
            8.5869795083999634e-01 -6.3030385971069336e-01</leafValues></_></weakClassifiers></_>
    <!-- stage 17 -->
    <_>
      <maxWeakCount>3</maxWeakCount>
      <stageThreshold>-9.4250172376632690e-01</stageThreshold>
      <weakClassifiers>
        <_>
          <internalNodes>
            0 -1 34 6.6807925701141357e-02</internalNodes>
          <leafValues>
            -9.0476191043853760e-01 8.1481480598449707e-01</leafValues></_>
        <_>
          <internalNodes>
            0 -1 38 2.3000277578830719e-03</internalNodes>
          <leafValues>
            -6.7173111438751221e-01 8.3840531110763550e-01</leafValues></_>
        <_>
          <internalNodes>
            0 -1 8 -1.6740644350647926e-03</internalNodes>
          <leafValues>
            -9.2443764209747314e-01 6.3399130105972290e-01</leafValues></_></weakClassifiers></_>
    <!-- stage 18 -->
    <_>
      <maxWeakCount>4</maxWeakCount>
      <stageThreshold>-1.1041464656591415e-01</stageThreshold>
      <weakClassifiers>
        <_>
          <internalNodes>
            0 -1 32 2.9155088122934103e-04</internalNodes>
          <leafValues>
            -6.6666668653488159e-01 8.0392158031463623e-01</leafValues></_>
        <_>
          <internalNodes>
            0 -1 50 1.3801542809233069e-04</internalNodes>
          <leafValues>
            7.2972458600997925e-01 -7.8452837467193604e-01</leafValues></_>
        <_>
          <internalNodes>
            0 -1 4 3.1886340584605932e-03</internalNodes>
          <leafValues>
            6.6691702604293823e-01 -7.9134035110473633e-01</leafValues></_>
        <_>
          <internalNodes>
            0 -1 11 1.2409051414579153e-03</internalNodes>
          <leafValues>
            -8.7613123655319214e-01 6.7386335134506226e-01</leafValues></_></weakClassifiers></_>
    <!-- stage 19 -->
    <_>
      <maxWeakCount>4</maxWeakCount>
      <stageThreshold>-1.8341571092605591e-01</stageThreshold>
      <weakClassifiers>
        <_>
          <internalNodes>
            0 -1 1 -7.4710871558636427e-04</internalNodes>
          <leafValues>
            -8.8888889551162720e-01 7.1929824352264404e-01</leafValues></_>
        <_>
          <internalNodes>
            0 -1 10 -2.4517956189811230e-03</internalNodes>
          <leafValues>
            9.2271834611892700e-01 -5.8897382020950317e-01</leafValues></_>
        <_>
          <internalNodes>
            0 -1 39 4.3122761417180300e-04</internalNodes>
          <leafValues>
            6.2380903959274292e-01 -9.6319401264190674e-01</leafValues></_>
        <_>
          <internalNodes>
            0 -1 41 5.9800548478960991e-04</internalNodes>
          <leafValues>
            6.7063802480697632e-01 -8.6880654096603394e-01</leafValues></_></weakClassifiers></_></stages>
  <features>
    <_>
      <rects>
        <_>
          0 0 1 28 -1.</_>
        <_>
          0 14 1 14 2.</_></rects>
      <tilted>0</tilted></_>
    <_>
      <rects>
        <_>
          0 0 2 24 -1.</_>
        <_>
          0 12 2 12 2.</_></rects>
      <tilted>0</tilted></_>
    <_>
      <rects>
        <_>
          0 0 2 26 -1.</_>
        <_>
          0 13 2 13 2.</_></rects>
      <tilted>0</tilted></_>
    <_>
      <rects>
        <_>
          0 0 14 16 -1.</_>
        <_>
          7 0 7 16 2.</_></rects>
      <tilted>0</tilted></_>
    <_>
      <rects>
        <_>
          0 10 26 10 -1.</_>
        <_>
          0 10 13 5 2.</_>
        <_>
          13 15 13 5 2.</_></rects>
      <tilted>0</tilted></_>
    <_>
      <rects>
        <_>
          0 22 12 4 -1.</_>
        <_>
          6 22 6 4 2.</_></rects>
      <tilted>0</tilted></_>
    <_>
      <rects>
        <_>
          0 24 14 3 -1.</_>
        <_>
          7 24 7 3 2.</_></rects>
      <tilted>0</tilted></_>
    <_>
      <rects>
        <_>
          0 26 14 1 -1.</_>
        <_>
          7 26 7 1 2.</_></rects>
      <tilted>0</tilted></_>
    <_>
      <rects>
        <_>
          1 0 8 1 -1.</_>
        <_>
          5 0 4 1 2.</_></rects>
      <tilted>0</tilted></_>
    <_>
      <rects>
        <_>
          1 0 10 16 -1.</_>
        <_>
          6 0 5 16 2.</_></rects>
      <tilted>0</tilted></_>
    <_>
      <rects>
        <_>
          1 1 6 4 -1.</_>
        <_>
          1 1 3 2 2.</_>
        <_>
          4 3 3 2 2.</_></rects>
      <tilted>0</tilted></_>
    <_>
      <rects>
        <_>
          1 1 20 8 -1.</_>
        <_>
          1 1 10 4 2.</_>
        <_>
          11 5 10 4 2.</_></rects>
      <tilted>0</tilted></_>
    <_>
      <rects>
        <_>
          1 7 1 20 -1.</_>
        <_>
          1 17 1 10 2.</_></rects>
      <tilted>0</tilted></_>
    <_>
      <rects>
        <_>
          1 13 10 7 -1.</_>
        <_>
          6 13 5 7 2.</_></rects>
      <tilted>0</tilted></_>
    <_>
      <rects>
        <_>
          2 25 16 2 -1.</_>
        <_>
          10 25 8 2 2.</_></rects>
      <tilted>0</tilted></_>
    <_>
      <rects>
        <_>
          4 0 9 2 -1.</_>
        <_>
          4 1 9 1 2.</_></rects>
      <tilted>0</tilted></_>
    <_>
      <rects>
        <_>
          5 3 4 24 -1.</_>
        <_>
          5 3 2 12 2.</_>
        <_>
          7 15 2 12 2.</_></rects>
      <tilted>0</tilted></_>
    <_>
      <rects>
        <_>
          5 26 6 2 -1.</_>
        <_>
          5 27 6 1 2.</_></rects>
      <tilted>0</tilted></_>
    <_>
      <rects>
        <_>
          6 8 3 8 -1.</_>
        <_>
          6 12 3 4 2.</_></rects>
      <tilted>0</tilted></_>
    <_>
      <rects>
        <_>
          8 0 7 2 -1.</_>
        <_>
          8 1 7 1 2.</_></rects>
      <tilted>0</tilted></_>
    <_>
      <rects>
        <_>
          8 18 20 1 -1.</_>
        <_>
          18 18 10 1 2.</_></rects>
      <tilted>0</tilted></_>
    <_>
      <rects>
        <_>
          9 0 14 2 -1.</_>
        <_>
          9 1 14 1 2.</_></rects>
      <tilted>0</tilted></_>
    <_>
      <rects>
        <_>
          9 26 9 2 -1.</_>
        <_>
          9 27 9 1 2.</_></rects>
      <tilted>0</tilted></_>
    <_>
      <rects>
        <_>
          10 0 10 2 -1.</_>
        <_>
          10 1 10 1 2.</_></rects>
      <tilted>0</tilted></_>
    <_>
      <rects>
        <_>
          12 1 14 4 -1.</_>
        <_>
          12 1 7 2 2.</_>
        <_>
          19 3 7 2 2.</_></rects>
      <tilted>0</tilted></_>
    <_>
      <rects>
        <_>
          13 0 15 2 -1.</_>
        <_>
          18 0 5 2 2.</_></rects>
      <tilted>0</tilted></_>
    <_>
      <rects>
        <_>
          14 0 14 26 -1.</_>
        <_>
          21 0 7 26 2.</_></rects>
      <tilted>0</tilted></_>
    <_>
      <rects>
        <_>
          14 0 9 2 -1.</_>
        <_>
          14 1 9 1 2.</_></rects>
      <tilted>0</tilted></_>
    <_>
      <rects>
        <_>
          14 17 14 10 -1.</_>
        <_>
          21 17 7 10 2.</_></rects>
      <tilted>0</tilted></_>
    <_>
      <rects>
        <_>
          15 0 5 2 -1.</_>
        <_>
          15 1 5 1 2.</_></rects>
      <tilted>0</tilted></_>
    <_>
      <rects>
        <_>
          15 5 8 16 -1.</_>
        <_>
          15 5 4 8 2.</_>
        <_>
          19 13 4 8 2.</_></rects>
      <tilted>0</tilted></_>
    <_>
      <rects>
        <_>
          16 0 12 16 -1.</_>
        <_>
          22 0 6 16 2.</_></rects>
      <tilted>0</tilted></_>
    <_>
      <rects>
        <_>
          17 26 3 2 -1.</_>
        <_>
          17 27 3 1 2.</_></rects>
      <tilted>0</tilted></_>
    <_>
      <rects>
        <_>
          18 0 10 4 -1.</_>
        <_>
          18 0 5 2 2.</_>
        <_>
          23 2 5 2 2.</_></rects>
      <tilted>0</tilted></_>
    <_>
      <rects>
        <_>
          18 3 10 13 -1.</_>
        <_>
          23 3 5 13 2.</_></rects>
      <tilted>0</tilted></_>
    <_>
      <rects>
        <_>
          18 9 10 12 -1.</_>
        <_>
          23 9 5 12 2.</_></rects>
      <tilted>0</tilted></_>
    <_>
      <rects>
        <_>
          18 20 6 7 -1.</_>
        <_>
          21 20 3 7 2.</_></rects>
      <tilted>0</tilted></_>
    <_>
      <rects>
        <_>
          18 25 10 2 -1.</_>
        <_>
          23 25 5 2 2.</_></rects>
      <tilted>0</tilted></_>
    <_>
      <rects>
        <_>
          19 0 8 4 -1.</_>
        <_>
          19 0 4 2 2.</_>
        <_>
          23 2 4 2 2.</_></rects>
      <tilted>0</tilted></_>
    <_>
      <rects>
        <_>
          22 0 6 1 -1.</_>
        <_>
          25 0 3 1 2.</_></rects>
      <tilted>0</tilted></_>
    <_>
      <rects>
        <_>
          22 1 6 26 -1.</_>
        <_>
          22 1 3 13 2.</_>
        <_>
          25 14 3 13 2.</_></rects>
      <tilted>0</tilted></_>
    <_>
      <rects>
        <_>
          22 18 4 2 -1.</_>
        <_>
          24 18 2 2 2.</_></rects>
      <tilted>0</tilted></_>
    <_>
      <rects>
        <_>
          23 3 2 16 -1.</_>
        <_>
          23 3 1 8 2.</_>
        <_>
          24 11 1 8 2.</_></rects>
      <tilted>0</tilted></_>
    <_>
      <rects>
        <_>
          23 4 4 23 -1.</_>
        <_>
          25 4 2 23 2.</_></rects>
      <tilted>0</tilted></_>
    <_>
      <rects>
        <_>
          24 18 4 10 -1.</_>
        <_>
          26 18 2 10 2.</_></rects>
      <tilted>0</tilted></_>
    <_>
      <rects>
        <_>
          24 22 2 4 -1.</_>
        <_>
          25 22 1 4 2.</_></rects>
      <tilted>0</tilted></_>
    <_>
      <rects>
        <_>
          24 22 2 6 -1.</_>
        <_>
          24 25 2 3 2.</_></rects>
      <tilted>0</tilted></_>
    <_>
      <rects>
        <_>
          24 23 4 4 -1.</_>
        <_>
          26 23 2 4 2.</_></rects>
      <tilted>0</tilted></_>
    <_>
      <rects>
        <_>
          24 24 4 3 -1.</_>
        <_>
          26 24 2 3 2.</_></rects>
      <tilted>0</tilted></_>
    <_>
      <rects>
        <_>
          25 1 3 6 -1.</_>
        <_>
          25 4 3 3 2.</_></rects>
      <tilted>0</tilted></_>
    <_>
      <rects>
        <_>
          25 20 3 8 -1.</_>
        <_>
          25 24 3 4 2.</_></rects>
      <tilted>0</tilted></_>
    <_>
      <rects>
        <_>
          27 10 1 18 -1.</_>
        <_>
          27 19 1 9 2.</_></rects>
      <tilted>0</tilted></_></features></cascade>
</opencv_storage>
