<?xml version="1.0"?>
<opencv_storage>
<cascade>
  <stageType>BOOST</stageType>
  <featureType>HAAR</featureType>
  <height>28</height>
  <width>28</width>
  <stageParams>
    <boostType>GAB</boostType>
    <minHitRate>9.9500000476837158e-01</minHitRate>
    <maxFalseAlarm>3.0000001192092896e-01</maxFalseAlarm>
    <weightTrimRate>9.4999999999999996e-01</weightTrimRate>
    <maxDepth>1</maxDepth>
    <maxWeakCount>100</maxWeakCount></stageParams>
  <featureParams>
    <maxCatCount>0</maxCatCount>
    <featSize>1</featSize>
    <mode>BASIC</mode></featureParams>
  <stageNum>9</stageNum>
  <stages>
    <!-- stage 0 -->
    <_>
      <maxWeakCount>2</maxWeakCount>
      <stageThreshold>-7.5036503374576569e-02</stageThreshold>
      <weakClassifiers>
        <_>
          <internalNodes>
            0 -1 19 2.4855288863182068e-01</internalNodes>
          <leafValues>
            -9.5121949911117554e-01 9.6031743288040161e-01</leafValues></_>
        <_>
          <internalNodes>
            0 -1 0 -9.1973438858985901e-02</internalNodes>
          <leafValues>
            8.7618303298950195e-01 -9.7844558954238892e-01</leafValues></_></weakClassifiers></_>
    <!-- stage 1 -->
    <_>
      <maxWeakCount>5</maxWeakCount>
      <stageThreshold>-7.2028332948684692e-01</stageThreshold>
      <weakClassifiers>
        <_>
          <internalNodes>
            0 -1 11 -5.7979833334684372e-02</internalNodes>
          <leafValues>
            -8.1102359294891357e-01 9.1935485601425171e-01</leafValues></_>
        <_>
          <internalNodes>
            0 -1 15 1.0458686389029026e-02</internalNodes>
          <leafValues>
            -7.2982269525527954e-01 9.0819555521011353e-01</leafValues></_>
        <_>
          <internalNodes>
            0 -1 24 1.5647207200527191e-01</internalNodes>
          <leafValues>
            -7.0249348878860474e-01 8.1899803876876831e-01</leafValues></_>
        <_>
          <internalNodes>
            0 -1 20 1.1871116235852242e-02</internalNodes>
          <leafValues>
            -6.3362777233123779e-01 8.5214561223983765e-01</leafValues></_>
        <_>
          <internalNodes>
            0 -1 25 6.2261614948511124e-04</internalNodes>
          <leafValues>
            -8.7757968902587891e-01 6.3519275188446045e-01</leafValues></_></weakClassifiers></_>
    <!-- stage 2 -->
    <_>
      <maxWeakCount>3</maxWeakCount>
      <stageThreshold>-6.5471351146697998e-01</stageThreshold>
      <weakClassifiers>
        <_>
          <internalNodes>
            0 -1 4 -2.2798559069633484e-01</internalNodes>
          <leafValues>
            8.7109375000000000e-01 -8.2352942228317261e-01</leafValues></_>
        <_>
          <internalNodes>
            0 -1 22 -9.3166865408420563e-03</internalNodes>
          <leafValues>
            9.0572798252105713e-01 -6.7726433277130127e-01</leafValues></_>
        <_>
          <internalNodes>
            0 -1 17 -8.0620520748198032e-04</internalNodes>
          <leafValues>
            8.4608024358749390e-01 -7.4181282520294189e-01</leafValues></_></weakClassifiers></_>
    <!-- stage 3 -->
    <_>
      <maxWeakCount>5</maxWeakCount>
      <stageThreshold>-1.0171425342559814e+00</stageThreshold>
      <weakClassifiers>
        <_>
          <internalNodes>
            0 -1 21 -9.7751691937446594e-03</internalNodes>
          <leafValues>
            9.1880339384078979e-01 -6.3829785585403442e-01</leafValues></_>
        <_>
          <internalNodes>
            0 -1 16 2.0334707200527191e-01</internalNodes>
          <leafValues>
            -7.9195582866668701e-01 7.6359224319458008e-01</leafValues></_>
        <_>
          <internalNodes>
            0 -1 8 7.5277930591255426e-04</internalNodes>
          <leafValues>
            -8.1999492645263672e-01 6.4351081848144531e-01</leafValues></_>
        <_>
          <internalNodes>
            0 -1 10 1.7523515969514847e-02</internalNodes>
          <leafValues>
            -7.2299259901046753e-01 6.8646806478500366e-01</leafValues></_>
        <_>
          <internalNodes>
            0 -1 2 6.6821165382862091e-03</internalNodes>
          <leafValues>
            4.9259302020072937e-01 -9.9611490964889526e-01</leafValues></_></weakClassifiers></_>
    <!-- stage 4 -->
    <_>
      <maxWeakCount>4</maxWeakCount>
      <stageThreshold>-2.0418208837509155e-01</stageThreshold>
      <weakClassifiers>
        <_>
          <internalNodes>
            0 -1 6 -6.4141213893890381e-02</internalNodes>
          <leafValues>
            8.9539748430252075e-01 -6.5441179275512695e-01</leafValues></_>
        <_>
          <internalNodes>
            0 -1 13 1.0547082871198654e-02</internalNodes>
          <leafValues>
            -6.7017900943756104e-01 8.1972813606262207e-01</leafValues></_>
        <_>
          <internalNodes>
            0 -1 23 3.9063155651092529e-02</internalNodes>
          <leafValues>
            -8.6104851961135864e-01 7.3393023014068604e-01</leafValues></_>
        <_>
          <internalNodes>
            0 -1 27 -9.5461582532152534e-06</internalNodes>
          <leafValues>
            -1. 4.9155008792877197e-01</leafValues></_></weakClassifiers></_>
    <!-- stage 5 -->
    <_>
      <maxWeakCount>3</maxWeakCount>
      <stageThreshold>-4.9782377481460571e-01</stageThreshold>
      <weakClassifiers>
        <_>
          <internalNodes>
            0 -1 27 1.9187786165275611e-05</internalNodes>
          <leafValues>
            7.8456014394760132e-01 -9.6891194581985474e-01</leafValues></_>
        <_>
          <internalNodes>
            0 -1 18 1.9757358357310295e-02</internalNodes>
          <leafValues>
            -6.4725506305694580e-01 8.3917707204818726e-01</leafValues></_>
        <_>
          <internalNodes>
            0 -1 7 -1.0690055787563324e-03</internalNodes>
          <leafValues>
            7.9922801256179810e-01 -6.3512885570526123e-01</leafValues></_></weakClassifiers></_>
    <!-- stage 6 -->
    <_>
      <maxWeakCount>4</maxWeakCount>
      <stageThreshold>3.4023482352495193e-02</stageThreshold>
      <weakClassifiers>
        <_>
          <internalNodes>
            0 -1 12 -2.0516926422715187e-02</internalNodes>
          <leafValues>
            -4.9837133288383484e-01 9.0970653295516968e-01</leafValues></_>
        <_>
          <internalNodes>
            0 -1 28 -1.0260338058287743e-05</internalNodes>
          <leafValues>
            -1. 6.4044052362442017e-01</leafValues></_>
        <_>
          <internalNodes>
            0 -1 5 -1.4390973374247551e-02</internalNodes>
          <leafValues>
            8.0341500043869019e-01 -5.7842051982879639e-01</leafValues></_>
        <_>
          <internalNodes>
            0 -1 1 2.9827013349859044e-05</internalNodes>
          <leafValues>
            4.7384423017501831e-01 -9.3770307302474976e-01</leafValues></_></weakClassifiers></_>
    <!-- stage 7 -->
    <_>
      <maxWeakCount>4</maxWeakCount>
      <stageThreshold>-1.0318957269191742e-01</stageThreshold>
      <weakClassifiers>
        <_>
          <internalNodes>
            0 -1 3 -1.8085001502186060e-03</internalNodes>
          <leafValues>
            -9.6590906381607056e-01 7.3170733451843262e-01</leafValues></_>
        <_>
          <internalNodes>
            0 -1 14 -7.8361079795286059e-04</internalNodes>
          <leafValues>
            -6.2610888481140137e-01 8.6307930946350098e-01</leafValues></_>
        <_>
          <internalNodes>
            0 -1 9 2.3392133414745331e-02</internalNodes>
          <leafValues>
            -6.9623583555221558e-01 7.4660873413085938e-01</leafValues></_>
        <_>
          <internalNodes>
            0 -1 26 2.7987865905743092e-05</internalNodes>
          <leafValues>
            -9.5539671182632446e-01 5.0530076026916504e-01</leafValues></_></weakClassifiers></_>
    <!-- stage 8 -->
    <_>
      <maxWeakCount>1</maxWeakCount>
      <stageThreshold>8.2116788625717163e-01</stageThreshold>
      <weakClassifiers>
        <_>
          <internalNodes>
            0 -1 3 1.3928079279139638e-03</internalNodes>
          <leafValues>
            8.2116788625717163e-01 -9.9009901285171509e-01</leafValues></_></weakClassifiers></_></stages>
  <features>
    <_>
      <rects>
        <_>
          0 2 14 11 -1.</_>
        <_>
          7 2 7 11 2.</_></rects>
      <tilted>0</tilted></_>
    <_>
      <rects>
        <_>
          0 3 8 6 -1.</_>
        <_>
          0 6 8 3 2.</_></rects>
      <tilted>0</tilted></_>
    <_>
      <rects>
        <_>
          0 25 28 3 -1.</_>
        <_>
          14 25 14 3 2.</_></rects>
      <tilted>0</tilted></_>
    <_>
      <rects>
        <_>
          1 0 4 28 -1.</_>
        <_>
          1 14 4 14 2.</_></rects>
      <tilted>0</tilted></_>
    <_>
      <rects>
        <_>
          2 0 14 16 -1.</_>
        <_>
          9 0 7 16 2.</_></rects>
      <tilted>0</tilted></_>
    <_>
      <rects>
        <_>
          5 1 10 1 -1.</_>
        <_>
          10 1 5 1 2.</_></rects>
      <tilted>0</tilted></_>
    <_>
      <rects>
        <_>
          6 0 6 12 -1.</_>
        <_>
          9 0 3 12 2.</_></rects>
      <tilted>0</tilted></_>
    <_>
      <rects>
        <_>
          7 0 5 2 -1.</_>
        <_>
          7 1 5 1 2.</_></rects>
      <tilted>0</tilted></_>
    <_>
      <rects>
        <_>
          8 26 6 2 -1.</_>
        <_>
          8 27 6 1 2.</_></rects>
      <tilted>0</tilted></_>
    <_>
      <rects>
        <_>
          10 1 18 1 -1.</_>
        <_>
          19 1 9 1 2.</_></rects>
      <tilted>0</tilted></_>
    <_>
      <rects>
        <_>
          11 2 4 24 -1.</_>
        <_>
          11 2 2 12 2.</_>
        <_>
          13 14 2 12 2.</_></rects>
      <tilted>0</tilted></_>
    <_>
      <rects>
        <_>
          11 11 6 14 -1.</_>
        <_>
          13 11 2 14 2.</_></rects>
      <tilted>0</tilted></_>
    <_>
      <rects>
        <_>
          11 12 6 12 -1.</_>
        <_>
          13 12 2 12 2.</_></rects>
      <tilted>0</tilted></_>
    <_>
      <rects>
        <_>
          11 17 4 5 -1.</_>
        <_>
          13 17 2 5 2.</_></rects>
      <tilted>0</tilted></_>
    <_>
      <rects>
        <_>
          11 20 6 1 -1.</_>
        <_>
          13 20 2 1 2.</_></rects>
      <tilted>0</tilted></_>
    <_>
      <rects>
        <_>
          11 20 4 8 -1.</_>
        <_>
          13 20 2 8 2.</_></rects>
      <tilted>0</tilted></_>
    <_>
      <rects>
        <_>
          13 1 14 16 -1.</_>
        <_>
          20 1 7 16 2.</_></rects>
      <tilted>0</tilted></_>
    <_>
      <rects>
        <_>
          14 0 4 2 -1.</_>
        <_>
          14 1 4 1 2.</_></rects>
      <tilted>0</tilted></_>
    <_>
      <rects>
        <_>
          14 1 1 22 -1.</_>
        <_>
          14 12 1 11 2.</_></rects>
      <tilted>0</tilted></_>
    <_>
      <rects>
        <_>
          14 1 14 26 -1.</_>
        <_>
          21 1 7 26 2.</_></rects>
      <tilted>0</tilted></_>
    <_>
      <rects>
        <_>
          14 2 1 22 -1.</_>
        <_>
          14 13 1 11 2.</_></rects>
      <tilted>0</tilted></_>
    <_>
      <rects>
        <_>
          14 8 2 15 -1.</_>
        <_>
          15 8 1 15 2.</_></rects>
      <tilted>0</tilted></_>
    <_>
      <rects>
        <_>
          14 8 2 19 -1.</_>
        <_>
          15 8 1 19 2.</_></rects>
      <tilted>0</tilted></_>
    <_>
      <rects>
        <_>
          14 19 12 5 -1.</_>
        <_>
          20 19 6 5 2.</_></rects>
      <tilted>0</tilted></_>
    <_>
      <rects>
        <_>
          15 0 8 26 -1.</_>
        <_>
          19 0 4 26 2.</_></rects>
      <tilted>0</tilted></_>
    <_>
      <rects>
        <_>
          15 26 6 2 -1.</_>
        <_>
          15 27 6 1 2.</_></rects>
      <tilted>0</tilted></_>
    <_>
      <rects>
        <_>
          23 10 2 13 -1.</_>
        <_>
          24 10 1 13 2.</_></rects>
      <tilted>0</tilted></_>
    <_>
      <rects>
        <_>
          25 3 2 18 -1.</_>
        <_>
          25 3 1 9 2.</_>
        <_>
          26 12 1 9 2.</_></rects>
      <tilted>0</tilted></_>
    <_>
      <rects>
        <_>
          25 4 2 18 -1.</_>
        <_>
          25 4 1 9 2.</_>
        <_>
          26 13 1 9 2.</_></rects>
      <tilted>0</tilted></_></features></cascade>
</opencv_storage>
