<?xml version="1.0"?>
<opencv_storage>
<stage1>
  <maxWeakCount>5</maxWeakCount>
  <stageThreshold>-7.2028332948684692e-01</stageThreshold>
  <weakClassifiers>
    <_>
      <internalNodes>
        0 -1 196869 -5.7979833334684372e-02</internalNodes>
      <leafValues>
        -8.1102359294891357e-01 9.1935485601425171e-01</leafValues></_>
    <_>
      <internalNodes>
        0 -1 200349 1.0458686389029026e-02</internalNodes>
      <leafValues>
        -7.2982269525527954e-01 9.0819555521011353e-01</leafValues></_>
    <_>
      <internalNodes>
        0 -1 235104 1.5647207200527191e-01</internalNodes>
      <leafValues>
        -7.0249348878860474e-01 8.1899803876876831e-01</leafValues></_>
    <_>
      <internalNodes>
        0 -1 225865 1.1871116235852242e-02</internalNodes>
      <leafValues>
        -6.3362777233123779e-01 8.5214561223983765e-01</leafValues></_>
    <_>
      <internalNodes>
        0 -1 244140 6.2261614948511124e-04</internalNodes>
      <leafValues>
        -8.7757968902587891e-01 6.3519275188446045e-01</leafValues></_></weakClassifiers></stage1>
</opencv_storage>
