<?xml version="1.0"?>
<opencv_storage>
<stage10>
  <maxWeakCount>5</maxWeakCount>
  <stageThreshold>-6.2878899276256561e-02</stageThreshold>
  <weakClassifiers>
    <_>
      <internalNodes>
        0 -1 196874 2.2781770676374435e-02</internalNodes>
      <leafValues>
        -7.8350514173507690e-01 7.2302156686782837e-01</leafValues></_>
    <_>
      <internalNodes>
        0 -1 294146 1.2008863450319041e-05</internalNodes>
      <leafValues>
        5.5743438005447388e-01 -1.</leafValues></_>
    <_>
      <internalNodes>
        0 -1 4856 -1.2842306205129717e-05</internalNodes>
      <leafValues>
        -8.2809793949127197e-01 5.3901225328445435e-01</leafValues></_>
    <_>
      <internalNodes>
        0 -1 261124 -2.8461156762205064e-04</internalNodes>
      <leafValues>
        6.2124991416931152e-01 -6.7482787370681763e-01</leafValues></_>
    <_>
      <internalNodes>
        0 -1 293531 9.7646270660334267e-06</internalNodes>
      <leafValues>
        3.7003991007804871e-01 -1.</leafValues></_></weakClassifiers></stage10>
</opencv_storage>
