<?xml version="1.0"?>
<opencv_storage>
<cascade>
  <stageType>BOOST</stageType>
  <featureType>HAAR</featureType>
  <height>28</height>
  <width>28</width>
  <stageParams>
    <boostType>GAB</boostType>
    <minHitRate>9.9000000953674316e-01</minHitRate>
    <maxFalseAlarm>3.0000001192092896e-01</maxFalseAlarm>
    <weightTrimRate>9.4999999999999996e-01</weightTrimRate>
    <maxDepth>1</maxDepth>
    <maxWeakCount>100</maxWeakCount></stageParams>
  <featureParams>
    <maxCatCount>0</maxCatCount>
    <featSize>1</featSize>
    <mode>BASIC</mode></featureParams>
  <stageNum>8</stageNum>
  <stages>
    <!-- stage 0 -->
    <_>
      <maxWeakCount>2</maxWeakCount>
      <stageThreshold>3.4537985920906067e-02</stageThreshold>
      <weakClassifiers>
        <_>
          <internalNodes>
            0 -1 15 3.1341280788183212e-02</internalNodes>
          <leafValues>
            -8.2062029838562012e-01 8.7172466516494751e-01</leafValues></_>
        <_>
          <internalNodes>
            0 -1 18 5.6464681401848793e-03</internalNodes>
          <leafValues>
            -7.0970207452774048e-01 8.5515826940536499e-01</leafValues></_></weakClassifiers></_>
    <!-- stage 1 -->
    <_>
      <maxWeakCount>3</maxWeakCount>
      <stageThreshold>2.7807153761386871e-02</stageThreshold>
      <weakClassifiers>
        <_>
          <internalNodes>
            0 -1 13 -2.8528764843940735e-02</internalNodes>
          <leafValues>
            7.2175729274749756e-01 -9.2970520257949829e-01</leafValues></_>
        <_>
          <internalNodes>
            0 -1 5 -2.7533408254384995e-02</internalNodes>
          <leafValues>
            5.7799589633941650e-01 -8.2779765129089355e-01</leafValues></_>
        <_>
          <internalNodes>
            0 -1 12 -1.0065685273730196e-05</internalNodes>
          <leafValues>
            -9.9901562929153442e-01 3.7951648235321045e-01</leafValues></_></weakClassifiers></_>
    <!-- stage 2 -->
    <_>
      <maxWeakCount>1</maxWeakCount>
      <stageThreshold>7.9654926061630249e-01</stageThreshold>
      <weakClassifiers>
        <_>
          <internalNodes>
            0 -1 12 1.1737135537259746e-05</internalNodes>
          <leafValues>
            7.9654926061630249e-01 -9.9793386459350586e-01</leafValues></_></weakClassifiers></_>
    <!-- stage 3 -->
    <_>
      <maxWeakCount>1</maxWeakCount>
      <stageThreshold>7.6358503103256226e-01</stageThreshold>
      <weakClassifiers>
        <_>
          <internalNodes>
            0 -1 11 -1.3599966223409865e-05</internalNodes>
          <leafValues>
            -9.9781662225723267e-01 7.6358503103256226e-01</leafValues></_></weakClassifiers></_>
    <!-- stage 4 -->
    <_>
      <maxWeakCount>3</maxWeakCount>
      <stageThreshold>5.2473045885562897e-02</stageThreshold>
      <weakClassifiers>
        <_>
          <internalNodes>
            0 -1 8 -1.8143640458583832e-01</internalNodes>
          <leafValues>
            -9.3499046564102173e-01 8.2396447658538818e-01</leafValues></_>
        <_>
          <internalNodes>
            0 -1 6 -1.1897493386641145e-03</internalNodes>
          <leafValues>
            5.7479494810104370e-01 -7.8431665897369385e-01</leafValues></_>
        <_>
          <internalNodes>
            0 -1 11 1.6835381757118739e-05</internalNodes>
          <leafValues>
            4.1266852617263794e-01 -1.</leafValues></_></weakClassifiers></_>
    <!-- stage 5 -->
    <_>
      <maxWeakCount>3</maxWeakCount>
      <stageThreshold>2.8492274880409241e-01</stageThreshold>
      <weakClassifiers>
        <_>
          <internalNodes>
            0 -1 3 -6.7908426899521146e-06</internalNodes>
          <leafValues>
            6.2687540054321289e-01 -9.8245614767074585e-01</leafValues></_>
        <_>
          <internalNodes>
            0 -1 2 -5.1052667200565338e-02</internalNodes>
          <leafValues>
            6.2102955579757690e-01 -7.0190465450286865e-01</leafValues></_>
        <_>
          <internalNodes>
            0 -1 0 -7.9369023442268372e-03</internalNodes>
          <leafValues>
            -9.6298217773437500e-01 4.4486603140830994e-01</leafValues></_></weakClassifiers></_>
    <!-- stage 6 -->
    <_>
      <maxWeakCount>5</maxWeakCount>
      <stageThreshold>-9.1110788285732269e-02</stageThreshold>
      <weakClassifiers>
        <_>
          <internalNodes>
            0 -1 19 7.2987000457942486e-03</internalNodes>
          <leafValues>
            -4.3061515688896179e-01 7.8741496801376343e-01</leafValues></_>
        <_>
          <internalNodes>
            0 -1 7 -9.6311629749834538e-04</internalNodes>
          <leafValues>
            -9.1566014289855957e-01 4.8439538478851318e-01</leafValues></_>
        <_>
          <internalNodes>
            0 -1 9 9.0222060680389404e-04</internalNodes>
          <leafValues>
            4.0421667695045471e-01 -8.8632583618164063e-01</leafValues></_>
        <_>
          <internalNodes>
            0 -1 16 3.9870228618383408e-02</internalNodes>
          <leafValues>
            -6.9537562131881714e-01 4.1738528013229370e-01</leafValues></_>
        <_>
          <internalNodes>
            0 -1 4 -9.0587511658668518e-04</internalNodes>
          <leafValues>
            -9.2237156629562378e-01 3.2829332351684570e-01</leafValues></_></weakClassifiers></_>
    <!-- stage 7 -->
    <_>
      <maxWeakCount>6</maxWeakCount>
      <stageThreshold>-2.8409478068351746e-01</stageThreshold>
      <weakClassifiers>
        <_>
          <internalNodes>
            0 -1 10 8.4206239989725873e-06</internalNodes>
          <leafValues>
            -7.9327523708343506e-01 6.4031219482421875e-01</leafValues></_>
        <_>
          <internalNodes>
            0 -1 1 -8.1050293374573812e-06</internalNodes>
          <leafValues>
            -9.8333549499511719e-01 3.2366552948951721e-01</leafValues></_>
        <_>
          <internalNodes>
            0 -1 20 1.0602197609841824e-02</internalNodes>
          <leafValues>
            -5.7944691181182861e-01 5.6050270795822144e-01</leafValues></_>
        <_>
          <internalNodes>
            0 -1 14 6.7577811933006160e-06</internalNodes>
          <leafValues>
            -8.3657002449035645e-01 3.4376758337020874e-01</leafValues></_>
        <_>
          <internalNodes>
            0 -1 1 1.0733414455899037e-05</internalNodes>
          <leafValues>
            2.5864672660827637e-01 -1.</leafValues></_>
        <_>
          <internalNodes>
            0 -1 17 -1.0955323887174018e-05</internalNodes>
          <leafValues>
            -9.6290212869644165e-01 1.6254751384258270e-01</leafValues></_></weakClassifiers></_></stages>
  <features>
    <_>
      <rects>
        <_>
          0 0 1 28 -1.</_>
        <_>
          0 14 1 14 2.</_></rects>
      <tilted>0</tilted></_>
    <_>
      <rects>
        <_>
          0 0 8 8 -1.</_>
        <_>
          4 0 4 8 2.</_></rects>
      <tilted>0</tilted></_>
    <_>
      <rects>
        <_>
          0 0 24 14 -1.</_>
        <_>
          0 0 12 7 2.</_>
        <_>
          12 7 12 7 2.</_></rects>
      <tilted>0</tilted></_>
    <_>
      <rects>
        <_>
          0 1 1 20 -1.</_>
        <_>
          0 11 1 10 2.</_></rects>
      <tilted>0</tilted></_>
    <_>
      <rects>
        <_>
          0 5 1 10 -1.</_>
        <_>
          0 10 1 5 2.</_></rects>
      <tilted>0</tilted></_>
    <_>
      <rects>
        <_>
          0 11 12 15 -1.</_>
        <_>
          6 11 6 15 2.</_></rects>
      <tilted>0</tilted></_>
    <_>
      <rects>
        <_>
          0 12 2 15 -1.</_>
        <_>
          1 12 1 15 2.</_></rects>
      <tilted>0</tilted></_>
    <_>
      <rects>
        <_>
          0 27 24 1 -1.</_>
        <_>
          12 27 12 1 2.</_></rects>
      <tilted>0</tilted></_>
    <_>
      <rects>
        <_>
          1 15 24 3 -1.</_>
        <_>
          9 15 8 3 2.</_></rects>
      <tilted>0</tilted></_>
    <_>
      <rects>
        <_>
          1 27 22 1 -1.</_>
        <_>
          12 27 11 1 2.</_></rects>
      <tilted>0</tilted></_>
    <_>
      <rects>
        <_>
          3 22 3 6 -1.</_>
        <_>
          3 25 3 3 2.</_></rects>
      <tilted>0</tilted></_>
    <_>
      <rects>
        <_>
          4 0 4 8 -1.</_>
        <_>
          4 4 4 4 2.</_></rects>
      <tilted>0</tilted></_>
    <_>
      <rects>
        <_>
          5 0 2 8 -1.</_>
        <_>
          5 4 2 4 2.</_></rects>
      <tilted>0</tilted></_>
    <_>
      <rects>
        <_>
          5 0 4 26 -1.</_>
        <_>
          5 13 4 13 2.</_></rects>
      <tilted>0</tilted></_>
    <_>
      <rects>
        <_>
          14 23 7 2 -1.</_>
        <_>
          14 24 7 1 2.</_></rects>
      <tilted>0</tilted></_>
    <_>
      <rects>
        <_>
          16 14 5 14 -1.</_>
        <_>
          16 21 5 7 2.</_></rects>
      <tilted>0</tilted></_>
    <_>
      <rects>
        <_>
          17 8 4 20 -1.</_>
        <_>
          17 18 4 10 2.</_></rects>
      <tilted>0</tilted></_>
    <_>
      <rects>
        <_>
          24 24 4 4 -1.</_>
        <_>
          26 24 2 4 2.</_></rects>
      <tilted>0</tilted></_>
    <_>
      <rects>
        <_>
          26 9 2 14 -1.</_>
        <_>
          27 9 1 14 2.</_></rects>
      <tilted>0</tilted></_>
    <_>
      <rects>
        <_>
          26 10 2 10 -1.</_>
        <_>
          27 10 1 10 2.</_></rects>
      <tilted>0</tilted></_>
    <_>
      <rects>
        <_>
          26 10 2 11 -1.</_>
        <_>
          27 10 1 11 2.</_></rects>
      <tilted>0</tilted></_></features></cascade>
</opencv_storage>
