<?xml version="1.0"?>
<opencv_storage>
<stage5>
  <maxWeakCount>5</maxWeakCount>
  <stageThreshold>-9.3301343917846680e-01</stageThreshold>
  <weakClassifiers>
    <_>
      <internalNodes>
        0 -1 298248 -4.9294383643427864e-05</internalNodes>
      <leafValues>
        -8.6885243654251099e-01 6.4016735553741455e-01</leafValues></_>
    <_>
      <internalNodes>
        0 -1 224897 5.2152117714285851e-03</internalNodes>
      <leafValues>
        -6.0945975780487061e-01 7.1278709173202515e-01</leafValues></_>
    <_>
      <internalNodes>
        0 -1 95613 -2.8910454362630844e-02</internalNodes>
      <leafValues>
        6.5667802095413208e-01 -6.2631642818450928e-01</leafValues></_>
    <_>
      <internalNodes>
        0 -1 298186 3.1407480128109455e-04</internalNodes>
      <leafValues>
        4.9018174409866333e-01 -8.0933976173400879e-01</leafValues></_>
    <_>
      <internalNodes>
        0 -1 97401 9.8718143999576569e-04</internalNodes>
      <leafValues>
        -7.2696077823638916e-01 4.7193512320518494e-01</leafValues></_></weakClassifiers></stage5>
</opencv_storage>
